<?xml version="1.0"?>
<opencv_storage>
<cascade>
  <stageType>BOOST</stageType>
  <featureType>HAAR</featureType>
  <height>20</height>
  <width>20</width>
  <stageParams>
    <boostType>GAB</boostType>
    <minHitRate>9.9500000476837158e-01</minHitRate>
    <maxFalseAlarm>5.0000000000000000e-01</maxFalseAlarm>
    <weightTrimRate>9.4999999999999996e-01</weightTrimRate>
    <maxDepth>1</maxDepth>
    <maxWeakCount>100</maxWeakCount></stageParams>
  <featureParams>
    <maxCatCount>0</maxCatCount>
    <featSize>1</featSize>
    <mode>ALL</mode></featureParams>
  <stageNum>11</stageNum>
  <stages>
    <!-- stage 0 -->
    <_>
      <maxWeakCount>3</maxWeakCount>
      <stageThreshold>-1.3326624631881714e+00</stageThreshold>
      <weakClassifiers>
        <_>
          <internalNodes>
            0 -1 15 -1.0772089660167694e-01</internalNodes>
          <leafValues>
            1. -9.0023750066757202e-01</leafValues></_>
        <_>
          <internalNodes>
            0 -1 22 1.8790432810783386e-01</internalNodes>
          <leafValues>
            -8.1765627861022949e-01 4.0988212823867798e-01</leafValues></_>
        <_>
          <internalNodes>
            0 -1 37 1.7773041035979986e-03</internalNodes>
          <leafValues>
            -8.4230703115463257e-01 4.7076299786567688e-01</leafValues></_></weakClassifiers></_>
    <!-- stage 1 -->
    <_>
      <maxWeakCount>3</maxWeakCount>
      <stageThreshold>-1.1997601985931396e+00</stageThreshold>
      <weakClassifiers>
        <_>
          <internalNodes>
            0 -1 7 1.5271568298339844e-01</internalNodes>
          <leafValues>
            -9.0453457832336426e-01 7.7777779102325439e-01</leafValues></_>
        <_>
          <internalNodes>
            0 -1 9 9.1877300292253494e-03</internalNodes>
          <leafValues>
            -7.2372752428054810e-01 7.0107436180114746e-01</leafValues></_>
        <_>
          <internalNodes>
            0 -1 12 -2.2196301142685115e-04</internalNodes>
          <leafValues>
            4.2850187420845032e-01 -9.1636842489242554e-01</leafValues></_></weakClassifiers></_>
    <!-- stage 2 -->
    <_>
      <maxWeakCount>3</maxWeakCount>
      <stageThreshold>-1.4515618085861206e+00</stageThreshold>
      <weakClassifiers>
        <_>
          <internalNodes>
            0 -1 21 -2.6774249970912933e-02</internalNodes>
          <leafValues>
            5.5555558204650879e-01 -8.9976131916046143e-01</leafValues></_>
        <_>
          <internalNodes>
            0 -1 27 3.0835676006972790e-03</internalNodes>
          <leafValues>
            -7.6025599241256714e-01 3.3067828416824341e-01</leafValues></_>
        <_>
          <internalNodes>
            0 -1 29 -1.6401612083427608e-04</internalNodes>
          <leafValues>
            2.7126106619834900e-01 -8.8247877359390259e-01</leafValues></_></weakClassifiers></_>
    <!-- stage 3 -->
    <_>
      <maxWeakCount>3</maxWeakCount>
      <stageThreshold>-1.2211289405822754e+00</stageThreshold>
      <weakClassifiers>
        <_>
          <internalNodes>
            0 -1 30 -2.3238867521286011e-01</internalNodes>
          <leafValues>
            1. -8.9573460817337036e-01</leafValues></_>
        <_>
          <internalNodes>
            0 -1 34 -4.9968077801167965e-03</internalNodes>
          <leafValues>
            4.6655312180519104e-01 -7.0143121480941772e-01</leafValues></_>
        <_>
          <internalNodes>
            0 -1 36 -4.2601575842127204e-05</internalNodes>
          <leafValues>
            3.7603685259819031e-01 -7.4992394447326660e-01</leafValues></_></weakClassifiers></_>
    <!-- stage 4 -->
    <_>
      <maxWeakCount>4</maxWeakCount>
      <stageThreshold>-1.9268099069595337e+00</stageThreshold>
      <weakClassifiers>
        <_>
          <internalNodes>
            0 -1 6 -8.4983751177787781e-02</internalNodes>
          <leafValues>
            7.5000000000000000e-01 -8.9999997615814209e-01</leafValues></_>
        <_>
          <internalNodes>
            0 -1 28 3.3994495868682861e-02</internalNodes>
          <leafValues>
            -7.5855344533920288e-01 3.1222578883171082e-01</leafValues></_>
        <_>
          <internalNodes>
            0 -1 4 -1.2128603644669056e-02</internalNodes>
          <leafValues>
            4.9072998762130737e-01 -6.4012926816940308e-01</leafValues></_>
        <_>
          <internalNodes>
            0 -1 2 -1.5006028115749359e-02</internalNodes>
          <leafValues>
            3.7187281250953674e-01 -7.6994585990905762e-01</leafValues></_></weakClassifiers></_>
    <!-- stage 5 -->
    <_>
      <maxWeakCount>5</maxWeakCount>
      <stageThreshold>-1.5252853631973267e+00</stageThreshold>
      <weakClassifiers>
        <_>
          <internalNodes>
            0 -1 23 6.2724143266677856e-02</internalNodes>
          <leafValues>
            -9.0430623292922974e-01 6.0000002384185791e-01</leafValues></_>
        <_>
          <internalNodes>
            0 -1 28 3.3975146710872650e-02</internalNodes>
          <leafValues>
            -7.6242619752883911e-01 1.4351595938205719e-01</leafValues></_>
        <_>
          <internalNodes>
            0 -1 0 -4.0853302925825119e-03</internalNodes>
          <leafValues>
            2.1210069954395294e-01 -8.4779995679855347e-01</leafValues></_>
        <_>
          <internalNodes>
            0 -1 17 -6.0949721373617649e-03</internalNodes>
          <leafValues>
            6.7970603704452515e-01 -4.1608116030693054e-01</leafValues></_>
        <_>
          <internalNodes>
            0 -1 32 2.1360423488658853e-05</internalNodes>
          <leafValues>
            -7.5035971403121948e-01 4.0387350320816040e-01</leafValues></_></weakClassifiers></_>
    <!-- stage 6 -->
    <_>
      <maxWeakCount>2</maxWeakCount>
      <stageThreshold>-1.0604327917098999e+00</stageThreshold>
      <weakClassifiers>
        <_>
          <internalNodes>
            0 -1 18 -2.3258706554770470e-02</internalNodes>
          <leafValues>
            1. -8.9573460817337036e-01</leafValues></_>
        <_>
          <internalNodes>
            0 -1 20 1.6956867184489965e-03</internalNodes>
          <leafValues>
            -1.6469816863536835e-01 -1.</leafValues></_></weakClassifiers></_>
    <!-- stage 7 -->
    <_>
      <maxWeakCount>4</maxWeakCount>
      <stageThreshold>-1.1686589717864990e+00</stageThreshold>
      <weakClassifiers>
        <_>
          <internalNodes>
            0 -1 3 2.2456741333007812e-01</internalNodes>
          <leafValues>
            -9.1346156597137451e-01 6.6666668653488159e-01</leafValues></_>
        <_>
          <internalNodes>
            0 -1 33 5.3596727550029755e-02</internalNodes>
          <leafValues>
            -6.6522634029388428e-01 8.3159011602401733e-01</leafValues></_>
        <_>
          <internalNodes>
            0 -1 38 1.3500542845577002e-03</internalNodes>
          <leafValues>
            2.1953551471233368e-01 -9.1092145442962646e-01</leafValues></_>
        <_>
          <internalNodes>
            0 -1 19 -7.3097534477710724e-03</internalNodes>
          <leafValues>
            -1. 1.9049338996410370e-01</leafValues></_></weakClassifiers></_>
    <!-- stage 8 -->
    <_>
      <maxWeakCount>3</maxWeakCount>
      <stageThreshold>-1.2319595813751221e+00</stageThreshold>
      <weakClassifiers>
        <_>
          <internalNodes>
            0 -1 5 -1.9753217697143555e-01</internalNodes>
          <leafValues>
            7.1428573131561279e-01 -8.9548695087432861e-01</leafValues></_>
        <_>
          <internalNodes>
            0 -1 31 7.2985179722309113e-03</internalNodes>
          <leafValues>
            -6.5528637170791626e-01 4.2825073003768921e-01</leafValues></_>
        <_>
          <internalNodes>
            0 -1 8 -3.1956634484231472e-04</internalNodes>
          <leafValues>
            3.2469487190246582e-01 -7.6472336053848267e-01</leafValues></_></weakClassifiers></_>
    <!-- stage 9 -->
    <_>
      <maxWeakCount>5</maxWeakCount>
      <stageThreshold>-1.5874664783477783e+00</stageThreshold>
      <weakClassifiers>
        <_>
          <internalNodes>
            0 -1 16 4.6535808593034744e-02</internalNodes>
          <leafValues>
            -9.0407675504684448e-01 4.5454546809196472e-01</leafValues></_>
        <_>
          <internalNodes>
            0 -1 11 -5.9824332129210234e-04</internalNodes>
          <leafValues>
            2.5819236040115356e-01 -7.2409188747406006e-01</leafValues></_>
        <_>
          <internalNodes>
            0 -1 26 1.8258584896102548e-03</internalNodes>
          <leafValues>
            -6.2814819812774658e-01 4.1005304455757141e-01</leafValues></_>
        <_>
          <internalNodes>
            0 -1 25 2.9548554448410869e-04</internalNodes>
          <leafValues>
            2.7406555414199829e-01 -9.0757864713668823e-01</leafValues></_>
        <_>
          <internalNodes>
            0 -1 35 5.2471808157861233e-04</internalNodes>
          <leafValues>
            -5.8749943971633911e-01 5.0072300434112549e-01</leafValues></_></weakClassifiers></_>
    <!-- stage 10 -->
    <_>
      <maxWeakCount>5</maxWeakCount>
      <stageThreshold>-1.5522705316543579e+00</stageThreshold>
      <weakClassifiers>
        <_>
          <internalNodes>
            0 -1 10 -1.6936507821083069e-01</internalNodes>
          <leafValues>
            7.7777779102325439e-01 -9.0453457832336426e-01</leafValues></_>
        <_>
          <internalNodes>
            0 -1 13 -1.7104408144950867e-01</internalNodes>
          <leafValues>
            8.8425499200820923e-01 -6.5955960750579834e-01</leafValues></_>
        <_>
          <internalNodes>
            0 -1 14 1.5264928515534848e-04</internalNodes>
          <leafValues>
            -6.1955082416534424e-01 4.4251343607902527e-01</leafValues></_>
        <_>
          <internalNodes>
            0 -1 24 1.1525287991389632e-03</internalNodes>
          <leafValues>
            3.0961355566978455e-01 -7.6700127124786377e-01</leafValues></_>
        <_>
          <internalNodes>
            0 -1 1 1.3450291007757187e-02</internalNodes>
          <leafValues>
            3.3631151914596558e-01 -7.0359176397323608e-01</leafValues></_></weakClassifiers></_></stages>
  <features>
    <_>
      <rects>
        <_>
          0 3 12 3 -1.</_>
        <_>
          4 4 4 1 9.</_></rects>
      <tilted>0</tilted></_>
    <_>
      <rects>
        <_>
          1 0 6 20 -1.</_>
        <_>
          1 5 6 10 2.</_></rects>
      <tilted>0</tilted></_>
    <_>
      <rects>
        <_>
          1 5 5 14 -1.</_>
        <_>
          1 12 5 7 2.</_></rects>
      <tilted>0</tilted></_>
    <_>
      <rects>
        <_>
          1 6 18 7 -1.</_>
        <_>
          7 6 6 7 3.</_></rects>
      <tilted>0</tilted></_>
    <_>
      <rects>
        <_>
          2 2 4 6 -1.</_>
        <_>
          4 2 2 6 2.</_></rects>
      <tilted>0</tilted></_>
    <_>
      <rects>
        <_>
          2 6 6 12 -1.</_>
        <_>
          4 10 2 4 9.</_></rects>
      <tilted>0</tilted></_>
    <_>
      <rects>
        <_>
          2 6 14 6 -1.</_>
        <_>
          2 8 14 2 3.</_></rects>
      <tilted>0</tilted></_>
    <_>
      <rects>
        <_>
          2 7 11 9 -1.</_>
        <_>
          2 10 11 3 3.</_></rects>
      <tilted>0</tilted></_>
    <_>
      <rects>
        <_>
          2 12 2 3 -1.</_>
        <_>
          3 12 1 3 2.</_></rects>
      <tilted>0</tilted></_>
    <_>
      <rects>
        <_>
          2 14 14 3 -1.</_>
        <_>
          2 15 14 1 3.</_></rects>
      <tilted>0</tilted></_>
    <_>
      <rects>
        <_>
          3 2 16 12 -1.</_>
        <_>
          3 5 16 6 2.</_></rects>
      <tilted>0</tilted></_>
    <_>
      <rects>
        <_>
          3 17 2 2 -1.</_>
        <_>
          3 17 1 1 2.</_>
        <_>
          4 18 1 1 2.</_></rects>
      <tilted>0</tilted></_>
    <_>
      <rects>
        <_>
          4 5 3 3 -1.</_>
        <_>
          5 5 1 3 3.</_></rects>
      <tilted>0</tilted></_>
    <_>
      <rects>
        <_>
          4 7 10 12 -1.</_>
        <_>
          4 11 10 4 3.</_></rects>
      <tilted>0</tilted></_>
    <_>
      <rects>
        <_>
          4 16 1 2 -1.</_>
        <_>
          4 17 1 1 2.</_></rects>
      <tilted>0</tilted></_>
    <_>
      <rects>
        <_>
          5 3 6 9 -1.</_>
        <_>
          5 6 6 3 3.</_></rects>
      <tilted>0</tilted></_>
    <_>
      <rects>
        <_>
          5 7 6 7 -1.</_>
        <_>
          7 7 2 7 3.</_></rects>
      <tilted>0</tilted></_>
    <_>
      <rects>
        <_>
          5 15 4 4 -1.</_>
        <_>
          5 16 4 2 2.</_></rects>
      <tilted>0</tilted></_>
    <_>
      <rects>
        <_>
          6 8 4 1 -1.</_>
        <_>
          6 8 2 1 2.</_></rects>
      <tilted>1</tilted></_>
    <_>
      <rects>
        <_>
          6 16 9 3 -1.</_>
        <_>
          9 16 3 3 3.</_></rects>
      <tilted>0</tilted></_>
    <_>
      <rects>
        <_>
          6 19 9 1 -1.</_>
        <_>
          9 19 3 1 3.</_></rects>
      <tilted>0</tilted></_>
    <_>
      <rects>
        <_>
          7 1 1 12 -1.</_>
        <_>
          7 4 1 6 2.</_></rects>
      <tilted>0</tilted></_>
    <_>
      <rects>
        <_>
          7 1 9 15 -1.</_>
        <_>
          10 6 3 5 9.</_></rects>
      <tilted>0</tilted></_>
    <_>
      <rects>
        <_>
          8 0 5 4 -1.</_>
        <_>
          8 0 5 2 2.</_></rects>
      <tilted>1</tilted></_>
    <_>
      <rects>
        <_>
          8 2 8 5 -1.</_>
        <_>
          12 2 4 5 2.</_></rects>
      <tilted>0</tilted></_>
    <_>
      <rects>
        <_>
          8 11 3 1 -1.</_>
        <_>
          9 11 1 1 3.</_></rects>
      <tilted>0</tilted></_>
    <_>
      <rects>
        <_>
          8 15 2 3 -1.</_>
        <_>
          8 15 1 3 2.</_></rects>
      <tilted>1</tilted></_>
    <_>
      <rects>
        <_>
          9 0 3 3 -1.</_>
        <_>
          9 1 3 1 3.</_></rects>
      <tilted>0</tilted></_>
    <_>
      <rects>
        <_>
          9 7 2 6 -1.</_>
        <_>
          9 7 2 3 2.</_></rects>
      <tilted>1</tilted></_>
    <_>
      <rects>
        <_>
          10 19 9 1 -1.</_>
        <_>
          13 19 3 1 3.</_></rects>
      <tilted>0</tilted></_>
    <_>
      <rects>
        <_>
          12 2 6 12 -1.</_>
        <_>
          14 6 2 4 9.</_></rects>
      <tilted>0</tilted></_>
    <_>
      <rects>
        <_>
          12 6 6 1 -1.</_>
        <_>
          15 6 3 1 2.</_></rects>
      <tilted>0</tilted></_>
    <_>
      <rects>
        <_>
          12 10 3 1 -1.</_>
        <_>
          13 10 1 1 3.</_></rects>
      <tilted>0</tilted></_>
    <_>
      <rects>
        <_>
          13 5 6 5 -1.</_>
        <_>
          16 5 3 5 2.</_></rects>
      <tilted>0</tilted></_>
    <_>
      <rects>
        <_>
          13 9 2 2 -1.</_>
        <_>
          14 9 1 2 2.</_></rects>
      <tilted>0</tilted></_>
    <_>
      <rects>
        <_>
          15 4 4 2 -1.</_>
        <_>
          16 4 2 2 2.</_></rects>
      <tilted>0</tilted></_>
    <_>
      <rects>
        <_>
          17 2 2 1 -1.</_>
        <_>
          18 2 1 1 2.</_></rects>
      <tilted>0</tilted></_>
    <_>
      <rects>
        <_>
          17 5 2 6 -1.</_>
        <_>
          18 5 1 6 2.</_></rects>
      <tilted>0</tilted></_>
    <_>
      <rects>
        <_>
          17 12 3 4 -1.</_>
        <_>
          17 14 3 2 2.</_></rects>
      <tilted>0</tilted></_></features></cascade>
</opencv_storage>
